0.008301619712041209
64
-0.002282908896 0.006423838370603174 0.015130585637206349 0.023837332903809523 0.0325440801704127 0.04125082743701587 0.04995757470361904 0.05866432197022223 0.0673710692368254 0.07607781650342857 0.08478456377003174 0.09349131103663492 0.1021980583032381 0.11090480556984127 0.11961155283644445 0.12831830010304762 0.1370250473696508 0.14573179463625396 0.15443854190285713 0.1631452891694603 0.17185203643606348 0.18055878370266668 0.18926553096926985 0.19797227823587302 0.2066790255024762 0.21538577276907936 0.22409252003568253 0.2327992673022857 0.2415060145688889 0.250212761835492 0.2589195091020952 0.26762625636869836 0.27633300363530156 0.28503975090190475 0.2937464981685079 0.3024532454351111 0.31115999270171424 0.31986673996831744 0.3285734872349206 0.3372802345015238 0.3459869817681269 0.3546937290347301 0.3634004763013333 0.37210722356793646 0.38081397083453966 0.3895207181011428 0.398227465367746 0.40693421263434915 0.41564095990095234 0.42434770716755554 0.4330544544341587 0.4417612017007619 0.45046794896736503 0.4591746962339682 0.46788144350057137 0.47658819076717457 0.48529493803377777 0.4940016853003809 0.502708432566984 0.5114151798335873 0.5201219271001905 0.5288286743667936 0.5375354216333967 0.5462421689
2.1360289578158578e-06 -4.9070739165489365e-06 7.90909481639742e-06 1.4998316640874082e-06 3.3343206783036463e-06 -1.9102954282624854e-06 -4.175305047822798e-06 -4.95403334235984e-06 -6.33986495039675e-06 -5.646811380589691e-06 -5.8207491956478284e-06 -6.002240812688297e-06 -6.723724835155051e-06 -7.031063385396662e-06 -6.740998798011842e-06 -7.73246614917179e-06 -6.291516799437093e-06 -7.613890512379872e-06 -6.32806569563628e-06 -7.918766354256756e-06 -6.73599099573046e-06 -8.726512473759976e-06 -7.450715998897987e-06 -9.141164561409453e-06 -8.796352070956305e-06 -9.10337084883665e-06 -8.903180597959638e-06 -9.433785191797668e-06 -9.157706190299401e-06 -9.301893268901144e-06 -1.0143383833663005e-05 -8.38958197702623e-06 -9.946703216638155e-06 -7.979589036943888e-06 -8.57192559054241e-06 -8.35615963651648e-06 -7.580876607995728e-06 -8.52278284652829e-06 -7.340682341527244e-06 -9.459012027419839e-06 -8.66616136828069e-06 -1.0507940566623269e-05 -9.736382519322205e-06 -1.193528542384833e-05 -1.1082747675903913e-05 -1.2992491372632203e-05 -1.2088379451955666e-05 -1.4487081412625194e-05 -1.2117142856070512e-05 -1.4179743594659404e-05 -1.2325484095409085e-05 -1.5732147465742828e-05 -1.3406066651191238e-05 -1.7970608449447685e-05 -1.8918987060236403e-05 -1.8408011829306998e-05 -2.220676757460733e-05 -1.9798380959445602e-05 -1.9521214365950753e-05 -2.422669220459772e-05 -2.1100241211500607e-05 -2.8568929910019564e-05 -2.4874613364301843e-05 -3.712159892327852e-05