0.009962030457900879
64
-0.002467836923 0.005209311521809524 0.012886459966619048 0.020563608411428572 0.028240756856238097 0.035917905301047624 0.04359505374585715 0.05127220219066667 0.0589493506354762 0.06662649908028571 0.07430364752509525 0.08198079596990478 0.0896579444147143 0.09733509285952381 0.10501224130433334 0.11268938974914287 0.12036653819395239 0.1280436866387619 0.1357208350835714 0.14339798352838096 0.15107513197319047 0.158752280418 0.16642942886280954 0.17410657730761905 0.18178372575242857 0.1894608741972381 0.1971380226420476 0.20481517108685715 0.21249231953166667 0.22016946797647619 0.22784661642128573 0.23552376486609525 0.24320091331090476 0.2508780617557143 0.2585552102005238 0.26623235864533334 0.27390950709014283 0.2815866555349524 0.2892638039797619 0.2969409524245714 0.30461810086938096 0.3122952493141905 0.319972397759 0.32764954620380954 0.3353266946486191 0.3430038430934286 0.3506809915382381 0.3583581399830476 0.36603528842785715 0.3737124368726667 0.3813895853174762 0.38906673376228573 0.3967438822070952 0.40442103065190477 0.4120981790967143 0.4197753275415238 0.42745247598633335 0.4351296244311429 0.4428067728759524 0.4504839213207619 0.45816106976557147 0.46583821821038096 0.4735153666551905 0.4811925151
1.8220653839389682e-05 0.00016721734771626992 -0.0003862336321441847 0.0004201759470678769 -0.0005093728258930102 0.0003591648642566854 -0.0005894159982640375 0.0004188202904027982 -0.000734781996076132 0.00040869735111009425 -0.0007642051579960462 0.0002611436703690278 -0.0006652570735163493 0.00012123453515340443 -0.0006219634661570359 -8.434306213639558e-06 -0.000578137686475366 -0.00010643224832666461 -0.000608003544290322 -0.00016975725667172528 -0.000615078711728972 -0.00021596535045458976 -0.0006451097631871034 -0.00024090495731813414 -0.0007131880051278648 -0.00026242567515144966 -0.0007465754538111271 -0.00032619940977071524 -0.0007435101137191018 -0.0004212838632344189 -0.0007120989622942936 -0.0005104569283114536 -0.0007395378415914899 -0.0004942042205519048 -0.0008747120204887168 -0.00040822959959965614 -0.0010160866501990615 -0.00037476124906356105 -0.001073247548236354 -0.0004709688393116451 -0.0010296127142272221 -0.0006342576065298673 -0.0009198520491760216 -0.0009064572640170718 -0.0007110054656025896 -0.0011675719317296857 -0.0005557568154249125 -0.0013809758580485502 -0.0005119046062494212 -0.001619489467798621 -0.00010040534574585119 -0.0023233180975822726 0.0007196806221218439 -0.003419310567221235 0.0020002521482818444 -0.005041253658645244 0.003652833224530585 -0.006748499044474776 0.0055009763701463115 -0.009328314789321683 0.008485258520352871 -0.011559961498232666 0.008061262516596718 -0.007650429645562581
0.48204915661566156
-1.5847884639939223
0.1