0.008524066482893182
128
-0.002282908896 0.0020361862047559055 0.006355281305511811 0.010674376406267717 0.014993471507023622 0.019312566607779528 0.023631661708535433 0.02795075680929134 0.03226985191004725 0.03658894701080315 0.04090804211155906 0.04522713721231496 0.04954623231307087 0.05386532741382677 0.05818442251458268 0.0625035176153386 0.06682261271609449 0.07114170781685039 0.0754608029176063 0.07977989801836222 0.08409899311911812 0.08841808821987401 0.09273718332062993 0.09705627842138584 0.10137537352214174 0.10569446862289764 0.11001356372365355 0.11433265882440946 0.11865175392516536 0.12297084902592126 0.12728994412667718 0.13160903922743308 0.13592813432818898 0.14024722942894488 0.14456632452970078 0.1488854196304567 0.1532045147312126 0.1575236098319685 0.16184270493272443 0.16616180003348033 0.17048089513423623 0.17479999023499213 0.17911908533574802 0.18343818043650395 0.18775727553725985 0.19207637063801575 0.19639546573877167 0.20071456083952757 0.20503365594028347 0.20935275104103937 0.21367184614179527 0.2179909412425512 0.2223100363433071 0.226629131444063 0.23094822654481892 0.23526732164557482 0.23958641674633072 0.24390551184708661 0.2482246069478425 0.2525437020485984 0.25686279714935434 0.26118189225011024 0.26550098735086614 0.26982008245162203 0.27413917755237793 0.27845827265313383 0.28277736775388973 0.28709646285464563 0.2914155579554015 0.2957346530561575 0.3000537481569134 0.3043728432576693 0.3086919383584252 0.3130110334591811 0.317330128559937 0.3216492236606929 0.3259683187614488 0.3302874138622047 0.3346065089629606 0.3389256040637165 0.3432446991644724 0.3475637942652283 0.3518828893659842 0.3562019844667401 0.360521079567496 0.36484017466825197 0.36915926976900787 0.37347836486976377 0.37779745997051967 0.38211655507127557 0.38643565017203146 0.39075474527278736 0.3950738403735433 0.3993929354742992 0.4037120305750551 0.408031125675811 0.4123502207765669 0.4166693158773228 0.4209884109780787 0.4253075060788346 0.4296266011795905 0.43394569628034646 0.43826479138110236 0.44258388648185826 0.44690298158261416 0.45122207668337005 0.45554117178412595 0.45986026688488185 0.4641793619856378 0.4684984570863937 0.4728175521871496 0.4771366472879055 0.4814557423886614 0.4857748374894173 0.4900939325901732 0.4944130276909291 0.498732122791685 0.5030512178924409 0.5073703129931968 0.5116894080939527 0.5160085031947087 0.5203275982954646 0.5246466933962205 0.5289657884969764 0.5332848835977323 0.5376039786984882 0.5419230737992441 0.5462421689
0.00037754367225401584 -0.0012340423467376875 0.002109350255037041 -0.0024559552297223446 0.0020888515377362454 -0.001205271983804834 0.00020635463204431398 0.000557033588798768 -0.000898016164742135 0.0008203841443661453 -0.0004446699523800346 -2.8423758949567223e-05 0.0004351509996478349 -0.0006673867803643294 0.000697846814100412 -0.0005417681985898446 0.0002479665842141822 0.00011484712018581294 -0.0004656886992555315 0.0007125301961057287 -0.0007950139818205177 0.0006899705898108724 -0.0004433810121229018 0.00012553179600522356 0.00016660144345313787 -0.0003737787864930592 0.0004486363466096412 -0.0004090658562234278 0.00028260972821559234 -0.0001420787112110175 2.5757399134064183e-05 2.769157875184112e-05 -4.593576184614664e-05 5.0714553586576484e-05 -9.086289379233252e-05 0.00015941066039289648 -0.00025017172006527974 0.000312448721213803 -0.0003316390351739695 0.0002798018271472912 -0.00017547030773889914 1.9919727787983847e-05 0.00015198164280884438 -0.00033385003706182655 0.0004890424922521977 -0.0005988488654244125 0.0006136981451977154 -0.0005165291159135779 0.00029273727452885657 1.3101692673476352e-05 -0.00034325974634032125 0.0006051714753365889 -0.0007401793119827635 0.0007055788794520077 -0.0005224406126377984 0.000229506242571956 9.138518106199735e-05 -0.00037398723468747713 0.0005481311363510042 -0.0005945675264741489 0.0005097025645752751 -0.00033602796654116354 0.00011489738551438372 8.671008061458043e-05 -0.00022510526565559254 0.0002617754650605387 -0.0002118217231964446 0.0001037938335188005 7.053128082804496e-06 -9.264839505880008e-05 0.0001217012881420487 -9.134561263199963e-05 -4.590904410081882e-06 0.0001357670213279897 -0.0002655890837927594 0.0003299581059728909 -0.0003004208590948887 0.00016687595855809984 2.3190107600610374e-05 -0.0002213425667196837 0.00035777730883787925 -0.00040622845899091604 0.000344100680174296 -0.00020481444627679874 1.629830539483118e-05 0.00015511862326405206 -0.00028043731505295966 0.00032060577285943277 -0.00028839769196891383 0.00017415228908942667 -1.8440292671706524e-05 -0.00015091746739569632 0.0002559410333413529 -0.00027614503402786667 0.000195213623339746 -7.691263947605972e-05 -4.376504148383511e-05 0.00011053057795951132 -0.00014029979719869262 0.00012403017434558361 -9.207288697744658e-05 2.916844641003924e-05 2.3151755141162365e-05 -6.509877581465905e-05 6.31887208339091e-05 -6.459258993812727e-05 6.435715864010674e-05 -8.192086906054457e-05 4.919586312626399e-05 1.8442615489359102e-05 -0.0001181224630664499 0.0001536557103747978 -0.0001269320926208683 2.855991239317438e-05 6.087010005169542e-05 -0.00013816368654189946 0.00014444454964296648 -0.00010187035690467988 -1.2825270180852409e-05 0.00011491044567299533 -0.00018509623859801913 0.00014375218792976369 -4.2950454160110656e-05 -0.00011233945373129091 0.000210438933730543 -0.00025043679198098463 0.00017315786299761777 -8.072703473416308e-05