0.007319928431385581
64
-0.002467836923 0.005209311521809524 0.012886459966619048 0.020563608411428572 0.028240756856238097 0.035917905301047624 0.04359505374585715 0.05127220219066667 0.0589493506354762 0.06662649908028571 0.07430364752509525 0.08198079596990478 0.0896579444147143 0.09733509285952381 0.10501224130433334 0.11268938974914287 0.12036653819395239 0.1280436866387619 0.1357208350835714 0.14339798352838096 0.15107513197319047 0.158752280418 0.16642942886280954 0.17410657730761905 0.18178372575242857 0.1894608741972381 0.1971380226420476 0.20481517108685715 0.21249231953166667 0.22016946797647619 0.22784661642128573 0.23552376486609525 0.24320091331090476 0.2508780617557143 0.2585552102005238 0.26623235864533334 0.27390950709014283 0.2815866555349524 0.2892638039797619 0.2969409524245714 0.30461810086938096 0.3122952493141905 0.319972397759 0.32764954620380954 0.3353266946486191 0.3430038430934286 0.3506809915382381 0.3583581399830476 0.36603528842785715 0.3737124368726667 0.3813895853174762 0.38906673376228573 0.3967438822070952 0.40442103065190477 0.4120981790967143 0.4197753275415238 0.42745247598633335 0.4351296244311429 0.4428067728759524 0.4504839213207619 0.45816106976557147 0.46583821821038096 0.4735153666551905 0.4811925151
7.571985761605516e-05 -2.6437733668154364e-05 -4.1168323031157016e-05 -4.3909602202146835e-05 -9.231615367948362e-05 -0.0001299754365321613 -0.0001596467995688935 -0.0001802187868785861 -0.00023827097365098143 -0.000250952265400791 -0.00031226239830816 -0.0003253605851877878 -0.00035863966283662305 -0.0003822515648805385 -0.0004220285294169284 -0.00044599739204318546 -0.0004795181613802336 -0.0005117113614096439 -0.0005528113323684258 -0.0005727830762552605 -0.0006060306294701557 -0.0006244035189927996 -0.000660438261846004 -0.0006812115372264071 -0.0007250524581058524 -0.0007381761115318799 -0.0007830044743341166 -0.0007985148577593994 -0.0008399219612428753 -0.0008589045279377953 -0.0008905541054351723 -0.0009217167289340342 -0.0009438334317006338 -0.0009741351729473036 -0.0010060908452349086 -0.0010201183477256863 -0.0010680469316051882 -0.0010733693084080107 -0.0011323653104898447 -0.0011442114884756968 -0.0011948432500579504 -0.0012125956311732139 -0.0012632048468918585 -0.0012913895733604483 -0.0013109676588807305 -0.001356019784813875 -0.0013682612053360647 -0.0014400290520782029 -0.001459531111209339 -0.0014885187701762673 -0.0014918680503286017 -0.0015768105104362082 -0.0015141168697719507 -0.0016725204151929645 -0.0015110051080727503 -0.0018419390016210756 -0.0014369098286147412 -0.002002547119763349 -0.0013906108970380205 -0.0023041719849100284 -0.0009772003880443281 -0.002981990715645348 -0.0004530780968749213 -0.003960117447499352