0.009962030457900879
64
-0.002467836923 0.005209311521809524 0.012886459966619048 0.020563608411428572 0.028240756856238097 0.035917905301047624 0.04359505374585715 0.05127220219066667 0.0589493506354762 0.06662649908028571 0.07430364752509525 0.08198079596990478 0.0896579444147143 0.09733509285952381 0.10501224130433334 0.11268938974914287 0.12036653819395239 0.1280436866387619 0.1357208350835714 0.14339798352838096 0.15107513197319047 0.158752280418 0.16642942886280954 0.17410657730761905 0.18178372575242857 0.1894608741972381 0.1971380226420476 0.20481517108685715 0.21249231953166667 0.22016946797647619 0.22784661642128573 0.23552376486609525 0.24320091331090476 0.2508780617557143 0.2585552102005238 0.26623235864533334 0.27390950709014283 0.2815866555349524 0.2892638039797619 0.2969409524245714 0.30461810086938096 0.3122952493141905 0.319972397759 0.32764954620380954 0.3353266946486191 0.3430038430934286 0.3506809915382381 0.3583581399830476 0.36603528842785715 0.3737124368726667 0.3813895853174762 0.38906673376228573 0.3967438822070952 0.40442103065190477 0.4120981790967143 0.4197753275415238 0.42745247598633335 0.4351296244311429 0.4428067728759524 0.4504839213207619 0.45816106976557147 0.46583821821038096 0.4735153666551905 0.4811925151
0.01153247703 -0.00010316097560646705 0.00013481800343832467 -0.0005570609188786316 0.00031401482342728994 -0.0007188529058268685 0.00018374936367503082 -0.0008446000307574581 0.00018064858070844031 -0.0010403664347943583 0.00010993529051336292 -0.0011215256833612623 -9.688939787134149e-05 -0.0010756613550084442 -0.0002953845096706896 -0.0010857417899459425 -0.0004832736032418519 -0.0010954293387646506 -0.0006395726514568491 -0.0011784206202637777 -0.000761622540216405 -0.0012383074037431554 -0.0008666239204240813 -0.0013212826104887086 -0.0009497509641377712 -0.0014432908426604595 -0.0010283892487795807 -0.0015310528859742891 -0.0011497554407108664 -0.0015817666721843289 -0.0013026296619657548 -0.0016043068501051647 -0.0014493448656912981 -0.0016857489741041014 -0.001490739213461274 -0.0018746008234433122 -0.0014635212123767442 -0.002067312477034654 -0.0014925841763447282 -0.002171182418412763 -0.001655978095565355 -0.0021699717244608487 -0.001891267100396089 -0.002095116711999038 -0.002246730085294995 -0.0019068177365733098 -0.0026078568045078214 -0.0017516876977441 -0.00294805248194708 -0.001672723984568994 -0.003359087180980372 -0.001166618291145733 -0.004313697233533262 -0.0001472306358253634 -0.005801057303890408 0.0015195280615384293 -0.008057789875787135 0.0038643551710526064 -0.010766133579021467 0.006808885817071766 -0.014739228157915982 0.011202571191154826 -0.01847524085880831 0.011709657525439225 -0.014111381729205535
