0.013031902968767953
32
-0.002167355535 0.015412414420967744 0.03299218437693549 0.050571954332903235 0.06815172428887098 0.08573149424483872 0.10331126420080647 0.12089103415677421 0.13847080411274196 0.1560505740687097 0.17363034402467745 0.1912101139806452 0.20878988393661294 0.22636965389258068 0.24394942384854842 0.2615291938045161 0.2791089637604839 0.29668873371645166 0.3142685036724194 0.3318482736283871 0.34942804358435486 0.36700781354032264 0.38458758349629035 0.40216735345225807 0.41974712340822584 0.4373268933641936 0.45490666332016133 0.47248643327612905 0.4900662032320968 0.5076459731880646 0.5252257431440323 0.5428055131
2.1375808480670495e-06 -1.872210705235238e-06 -4.73270404744986e-06 -6.9849799890370714e-06 -1.2128005324939538e-05 -1.4352850529688309e-05 -1.7129120909672545e-05 -2.0656275817917995e-05 -2.212276459674759e-05 -2.623262957571453e-05 -2.84196361157137e-05 -3.0201964315885703e-05 -3.3795943595733204e-05 -3.489887607981159e-05 -3.849231816501237e-05 -3.9680276103661425e-05 -4.447700970850352e-05 -4.627672860815226e-05 -4.91790132553687e-05 -5.1754972978504555e-05 -5.3762422998514015e-05 -5.284240557190041e-05 -5.753236370195175e-05 -5.221888769035261e-05 -6.223039666190447e-05 -7.935080222393048e-05 -8.740478405371927e-05 -9.926607441806062e-05 -0.00011710163588734998 -0.00013417166646408361 -0.00016752956986650202 -0.00011960428159480194