0.003631145599821193
128
-0.002467836923 0.0013405123055275593 0.005148861534055119 0.008957210762582678 0.012765559991110237 0.016573909219637795 0.020382258448165356 0.024190607676692913 0.027998956905220473 0.031807306133748034 0.035615655362275594 0.039424004590803155 0.043232353819330716 0.047040703047858276 0.05084905227638583 0.05465740150491339 0.05846575073344095 0.062274099961968504 0.06608244919049606 0.06989079841902363 0.07369914764755119 0.07750749687607875 0.0813158461046063 0.08512419533313387 0.08893254456166143 0.09274089379018899 0.09654924301871655 0.1003575922472441 0.10416594147577166 0.10797429070429922 0.11178263993282678 0.11559098916135434 0.1193993383898819 0.12320768761840946 0.127016036846937 0.13082438607546457 0.1346327353039921 0.1384410845325197 0.14224943376104723 0.1460577829895748 0.14986613221810235 0.15367448144662993 0.15748283067515748 0.16129117990368502 0.1650995291322126 0.16890787836074014 0.17271622758926772 0.17652457681779526 0.18033292604632284 0.18414127527485039 0.18794962450337796 0.1917579737319055 0.19556632296043308 0.19937467218896063 0.20318302141748817 0.20699137064601575 0.2107997198745433 0.21460806910307087 0.21841641833159842 0.222224767560126 0.22603311678865354 0.2298414660171811 0.23364981524570866 0.23745816447423623 0.24126651370276378 0.24507486293129133 0.2488832121598189 0.2526915613883465 0.256499910616874 0.26030825984540157 0.26411660907392914 0.2679249583024567 0.27173330753098424 0.2755416567595118 0.2793500059880394 0.2831583552165669 0.2869667044450945 0.29077505367362205 0.2945834029021496 0.29839175213067715 0.3022001013592047 0.3060084505877323 0.30981679981625987 0.3136251490447874 0.31743349827331496 0.32124184750184254 0.32505019673037006 0.32885854595889763 0.3326668951874252 0.3364752444159528 0.3402835936444803 0.34409194287300787 0.34790029210153545 0.351708641330063 0.35551699055859054 0.3593253397871181 0.3631336890156457 0.3669420382441732 0.3707503874727008 0.37455873670122836 0.37836708592975593 0.38217543515828345 0.385983784386811 0.3897921336153386 0.3936004828438662 0.3974088320723937 0.40121718130092127 0.40502553052944884 0.40883387975797636 0.41264222898650393 0.4164505782150315 0.4202589274435591 0.4240672766720866 0.4278756259006142 0.43168397512914175 0.4354923243576693 0.43930067358619684 0.4431090228147244 0.446917372043252 0.4507257212717795 0.4545340705003071 0.45834241972883466 0.46215076895736223 0.46595911818588975 0.46976746741441733 0.4735758166429449 0.4773841658714725 0.4811925151
0.0307485892816 -0.00021465092588455724 -6.275446720727364e-05 -0.00013709216427175406 -0.00011933370480318999 -0.00011836959161877622 -0.0001142819375277265 -0.00010716992977350873 -0.00010806414715682611 -0.00010439831488494387 -0.00010483919369991767 -0.00010477229461841684 -0.00010260903211892062 -0.00010625427702212926 -0.00010016814507197427 -0.00010451291315583758 -0.00010080250628758953 -0.0001061088052986787 -0.00010258985134990934 -0.00010282888555261075 -0.00010716651945580369 -9.960981693184245e-05 -0.00010522682962909116 -0.00010053648285778037 -0.00010090475396007652 -9.719539582967699e-05 -0.00010143702456605157 -9.471809327626425e-05 -0.00010234421829045264 -9.119169127575627e-05 -0.00010626005206927961 -8.909123545397957e-05 -9.998591970084925e-05 -9.242691098395152e-05 -9.856557746366445e-05 -9.131192950792262e-05 -9.959412607711202e-05 -9.007894197300302e-05 -9.651864379365844e-05 -9.357918771154194e-05 -8.795793985188105e-05 -9.403128035146997e-05 -8.272905267756839e-05 -9.490349766640149e-05 -7.625380496128261e-05 -9.462852998774187e-05 -7.889355269124305e-05 -8.560019318341514e-05 -8.225937679624058e-05 -8.511204274007063e-05 -7.915107626583128e-05 -8.349005319521416e-05 -7.700851329057621e-05 -8.052456854788217e-05 -7.741288996726894e-05 -7.585725645436851e-05 -7.602710754078899e-05 -7.309438028164092e-05 -7.31574569398652e-05 -7.166235382545256e-05 -6.905257622270931e-05 -6.572898640110287e-05 -7.195685087359963e-05 -6.199694627906024e-05 -6.432502100544007e-05 -6.48735368811151e-05 -6.226911160149388e-05 -5.68460483160514e-05 -6.223876596165787e-05 -5.70287817569428e-05 -5.693364614072329e-05 -5.462162280325334e-05 -5.749645679965472e-05 -5.14018610446791e-05 -5.928755536664882e-05 -4.558365283034759e-05 -6.186944294761737e-05 -4.538551060084828e-05 -6.33402947449401e-05 -4.890848160886115e-05 -6.05222678799343e-05 -5.287569895958549e-05 -6.171005519783673e-05 -5.3474041340048975e-05 -6.696873598135847e-05 -5.4574971812481124e-05 -7.355540766630902e-05 -5.729488522135699e-05 -7.977603007559451e-05 -5.164807275677592e-05 -8.620199243446203e-05 -5.1973436059895954e-05 -8.124462079574712e-05 -5.912899055967452e-05 -8.104647275063029e-05 -6.444502445077018e-05 -8.720750549652285e-05 -6.679677430329687e-05 -8.847835136181368e-05 -6.441348922942795e-05 -8.350358175110645e-05 -6.79814791955005e-05 -8.41140734403347e-05 -6.0215638063167154e-05 -9.795744909034095e-05 -4.808757044585249e-05 -0.00010426373498371652 -3.6501743854847925e-05 -0.00012091997317730842 -2.3963874345227405e-05 -0.00012396039890189958 -3.531782053903254e-05 -0.00010225447143472326 -6.852350173252274e-05 -5.5123313469412124e-05 -9.33942818965635e-05 -4.491312501422873e-05 -0.00014290447602865498 2.3542384554032375e-05 -0.00018987575671437426 2.4220026427229473e-05 -0.00018391879846441084 9.051244766088932e-05 -0.000283999666521117 2.4756156368132762e-05 -8.35365005335013e-05 -0.00017220493782238184 6.269194292096237e-05 -0.0003440052643035752