8.838627368148923e-05
64
-2.32238405e-03 -2.20949540e-03 -2.09660675e-03 -1.98371810e-03 -1.87082945e-03 -1.75794080e-03 -1.64505216e-03 -1.53216351e-03 -1.41927486e-03 -1.30638621e-03 -1.19349756e-03 -1.08060891e-03 -9.67720262e-04 -8.54831613e-04 -7.41942964e-04 -6.29054315e-04 -5.16165666e-04 -4.03277017e-04 -2.90388368e-04 -1.77499720e-04 -6.46110707e-05  4.82775782e-05  1.61166227e-04  2.74054876e-04 3.86943525e-04  4.99832174e-04  6.12720823e-04  7.25609471e-04 8.38498120e-04  9.51386769e-04  1.06427542e-03  1.17716407e-03 1.29005272e-03  1.40294136e-03  1.51583001e-03  1.62871866e-03 1.74160731e-03  1.85449596e-03  1.96738461e-03  2.08027326e-03 2.19316191e-03  2.30605056e-03  2.41893920e-03  2.53182785e-03 2.64471650e-03  2.75760515e-03  2.87049380e-03  2.98338245e-03 3.09627110e-03  3.20915975e-03  3.32204840e-03  3.43493704e-03 3.54782569e-03  3.66071434e-03  3.77360299e-03  3.88649164e-03 3.99938029e-03  4.11226894e-03  4.22515759e-03  4.33804624e-03 4.45093488e-03  4.56382353e-03  4.67671218e-03  4.78960083e-03
9.717922e+03 -3.13613407e+03 -3.16618407e+03 -3.64879992e+03 -2.76986920e+03 -3.50849732e+03 -3.13072457e+03 -3.27317452e+03  6.29918725e+02 -8.43798651e+01 -4.85752165e+01  1.55534252e+01 -2.27775241e+01 4.22211735e+00  4.60879474e+00  3.60046943e+00 -5.30626357e+00 7.50376062e-01 -1.00464918e+00 -2.49241441e+00  6.95577369e-01 -2.54450796e+00  5.36445132e-01 -2.71068430e+00  7.46027212e-02 -2.55416659e+00  1.27910591e+00 -5.49137447e-01 -3.55215128e-01 -7.15282415e-01  6.32046543e-01 -3.99796792e+00 -2.26700329e+00 -2.54189639e+00 -8.37101418e-01 -3.11101175e-03 -2.80350565e+00 1.81895043e-01 -5.04979274e-01  4.10935109e-01 -2.76817068e-01 2.01482450e-01 -1.14886804e+00 -2.45486963e+00 -1.54766243e+00 -6.22962474e-01 -2.35127501e-01  5.16292571e-01 -1.33077744e-01 2.96127633e-01 -2.48788490e-02 -1.06127090e+00 -2.34439344e+00 -2.92763092e+00 -2.68649362e+00 -2.19052754e+00 -1.43701151e+00 -6.36530855e-01 -3.87364067e-01 -1.12402413e+00 -1.76538572e+00 -1.61022836e+00 -4.43038656e-01  5.28577075e-01  4.53464749e-01