0.004941794636596498
128
-0.002467836923 0.0013405123055275593 0.005148861534055119 0.008957210762582678 0.012765559991110237 0.016573909219637795 0.020382258448165356 0.024190607676692913 0.027998956905220473 0.031807306133748034 0.035615655362275594 0.039424004590803155 0.043232353819330716 0.047040703047858276 0.05084905227638583 0.05465740150491339 0.05846575073344095 0.062274099961968504 0.06608244919049606 0.06989079841902363 0.07369914764755119 0.07750749687607875 0.0813158461046063 0.08512419533313387 0.08893254456166143 0.09274089379018899 0.09654924301871655 0.1003575922472441 0.10416594147577166 0.10797429070429922 0.11178263993282678 0.11559098916135434 0.1193993383898819 0.12320768761840946 0.127016036846937 0.13082438607546457 0.1346327353039921 0.1384410845325197 0.14224943376104723 0.1460577829895748 0.14986613221810235 0.15367448144662993 0.15748283067515748 0.16129117990368502 0.1650995291322126 0.16890787836074014 0.17271622758926772 0.17652457681779526 0.18033292604632284 0.18414127527485039 0.18794962450337796 0.1917579737319055 0.19556632296043308 0.19937467218896063 0.20318302141748817 0.20699137064601575 0.2107997198745433 0.21460806910307087 0.21841641833159842 0.222224767560126 0.22603311678865354 0.2298414660171811 0.23364981524570866 0.23745816447423623 0.24126651370276378 0.24507486293129133 0.2488832121598189 0.2526915613883465 0.256499910616874 0.26030825984540157 0.26411660907392914 0.2679249583024567 0.27173330753098424 0.2755416567595118 0.2793500059880394 0.2831583552165669 0.2869667044450945 0.29077505367362205 0.2945834029021496 0.29839175213067715 0.3022001013592047 0.3060084505877323 0.30981679981625987 0.3136251490447874 0.31743349827331496 0.32124184750184254 0.32505019673037006 0.32885854595889763 0.3326668951874252 0.3364752444159528 0.3402835936444803 0.34409194287300787 0.34790029210153545 0.351708641330063 0.35551699055859054 0.3593253397871181 0.3631336890156457 0.3669420382441732 0.3707503874727008 0.37455873670122836 0.37836708592975593 0.38217543515828345 0.385983784386811 0.3897921336153386 0.3936004828438662 0.3974088320723937 0.40121718130092127 0.40502553052944884 0.40883387975797636 0.41264222898650393 0.4164505782150315 0.4202589274435591 0.4240672766720866 0.4278756259006142 0.43168397512914175 0.4354923243576693 0.43930067358619684 0.4431090228147244 0.446917372043252 0.4507257212717795 0.4545340705003071 0.45834241972883466 0.46215076895736223 0.46595911818588975 0.46976746741441733 0.4735758166429449 0.4773841658714725 0.4811925151
1199.487188040163 -0.000968369072946972 0.00039503735351035276 -0.0007877830223143427 -4.371535660613161e-06 -0.00046599706429826957 -0.00020711944046961433 -0.00033430228413944925 -0.0002714858341081171 -0.0003095076611088276 -0.00027659748672719583 -0.00032433821570706335 -0.00026291158304125384 -0.0003458044911546656 -0.0002576215513893519 -0.00034279422929697637 -0.00027792926201703746 -0.000324250107358143 -0.00032320452844544496 -0.00027250160115699617 -0.00038612672085739963 -0.00023401124380207226 -0.00040599092641647934 -0.00023680076293940472 -0.0004080983898085261 -0.0002233106789463722 -0.0004379708983873817 -0.00019361224537894784 -0.0004787444071191156 -0.00015764546932644526 -0.0005136693817428855 -0.00015932871743107356 -0.0004837152356677976 -0.00020432007146619597 -0.00045674130922615015 -0.0002277066692581608 -0.0004421531766068263 -0.00026418805121125746 -0.0003862930180534334 -0.0003518840570948951 -0.00029330689556517466 -0.0004384426362785906 -0.00022206944032417635 -0.0005012032719227816 -0.00018285369748778695 -0.0005076177857779484 -0.0002271703488373169 -0.00044342118509378947 -0.0002871545596770628 -0.0004185664630316527 -0.0003001799108501614 -0.0004132576552774946 -0.00031546526809341283 -0.00039179205610220303 -0.00035242379246247003 -0.0003571534317794386 -0.0003846565758785002 -0.0003377319682696833 -0.00039946549647739717 -0.00033026721655635653 -0.00041630568595965595 -0.0003012021020260587 -0.00044891030531319005 -0.0002994049815116162 -0.00042326126765364477 -0.0003298152351801432 -0.00042632451949606304 -0.00030210723617029965 -0.0004563892155984687 -0.0002905133819260967 -0.00047247118751161206 -0.0002584105893245098 -0.0005313223365786257 -0.0001908895936144769 -0.0006150945637028241 -0.00011189153058129934 -0.0006843797273932662 -7.797569522313551e-05 -0.0007011402424492763 -0.00010037147667109571 -0.000674731078326679 -0.00013096809917491565 -0.0006776969307618789 -0.00011338243727068875 -0.00073032332451019 -6.14807623310552e-05 -0.0008078175066812807 6.406949985056522e-06 -0.0009045755648454429 9.65155990831981e-05 -0.0009818192213531412 0.00011660470639929615 -0.000965414523459114 7.285447208842057e-05 -0.0009441095041694547 5.695761754899041e-05 -0.0009677499304105781 7.162445928779953e-05 -0.0009955280677451462 8.701211801714354e-05 -0.0010055001423271957 0.00010601248520798299 -0.001084415264359304 0.00024593325468988067 -0.0012879411549809828 0.0004556619448095854 -0.0014937175849920842 0.0006435252574108561 -0.0016525923753415081 0.0006877538505499014 -0.001529957464641905 0.0003382235941450354 -0.0009749167573383784 -0.00040468684817048 -0.00013551821802205497 -0.0012420464683874496 0.000703498990097794 -0.0022014754622696 0.001665943630203091 -0.002968047861257369 0.0021130524865158153 -0.003226606808796597 0.0022430881623706402 -0.002845629422308011 0.0007105257734557624 -0.0003606175377348417 -0.0018925449141914076 0.0015103898610089957 -0.0024057750193782817